<?xml version="1.0"?>
<opencv_storage>
<cascade>
  <stageType>BOOST</stageType>
  <featureType>LBP</featureType>
  <height>24</height>
  <width>24</width>
  <stageParams>
    <boostType>GAB</boostType>
    <minHitRate>9.9500000476837158e-01</minHitRate>
    <maxFalseAlarm>5.0000000000000000e-01</maxFalseAlarm>
    <weightTrimRate>9.4999999999999996e-01</weightTrimRate>
    <maxDepth>1</maxDepth>
    <maxWeakCount>100</maxWeakCount></stageParams>
  <featureParams>
    <maxCatCount>256</maxCatCount>
    <featSize>1</featSize></featureParams>
  <stageNum>11</stageNum>
  <stages>
    <!-- stage 0 -->
    <_>
      <maxWeakCount>2</maxWeakCount>
      <stageThreshold>-1.4989447593688965e-01</stageThreshold>
      <weakClassifiers>
        <_>
          <internalNodes>
            0 -1 17 1370609102 -707542063 295031287 -204357613
            -1002323508 -1079981890 -998014728 -3585</internalNodes>
          <leafValues>
            -9.2860454320907593e-01 8.2871329784393311e-01</leafValues></_>
        <_>
          <internalNodes>
            0 -1 13 -65997576 -116342400 -44230181 -38538839 -132983368
            -671053696 -74854481 -1310721</internalNodes>
          <leafValues>
            -9.1565030813217163e-01 7.7871006727218628e-01</leafValues></_></weakClassifiers></_>
    <!-- stage 1 -->
    <_>
      <maxWeakCount>2</maxWeakCount>
      <stageThreshold>-7.9218707978725433e-02</stageThreshold>
      <weakClassifiers>
        <_>
          <internalNodes>
            0 -1 10 -246153234 -184307966 1901171199 -176950822
            -134743057 -669509 -251667713 -68161633</internalNodes>
          <leafValues>
            -8.5844749212265015e-01 7.8859061002731323e-01</leafValues></_>
        <_>
          <internalNodes>
            0 -1 21 -192874532 -2918979 -555945571 -173343 -1148155393
            -272163 -1397167109 -50336118</internalNodes>
          <leafValues>
            -8.1100201606750488e-01 7.7922880649566650e-01</leafValues></_></weakClassifiers></_>
    <!-- stage 2 -->
    <_>
      <maxWeakCount>2</maxWeakCount>
      <stageThreshold>-1.2313905358314514e-01</stageThreshold>
      <weakClassifiers>
        <_>
          <internalNodes>
            0 -1 28 -83889374 -136845481 -257723904 -210251982 -19978485
            -269228825 -354423874 -4097</internalNodes>
          <leafValues>
            -8.0369204282760620e-01 7.5860601663589478e-01</leafValues></_>
        <_>
          <internalNodes>
            0 -1 20 -543164417 -997024259 -33570818 -992270 -557973707
            -865010315 -100799236 -50987145</internalNodes>
          <leafValues>
            -8.8174510002136230e-01 6.8512141704559326e-01</leafValues></_></weakClassifiers></_>
    <!-- stage 3 -->
    <_>
      <maxWeakCount>2</maxWeakCount>
      <stageThreshold>-1.5888044238090515e-01</stageThreshold>
      <weakClassifiers>
        <_>
          <internalNodes>
            0 -1 11 -170134020 -202115602 -244190056 -1146375430
            503025081 -67119621 1503463624 -603989249</internalNodes>
          <leafValues>
            -8.7304788827896118e-01 6.6937041282653809e-01</leafValues></_>
        <_>
          <internalNodes>
            0 -1 7 -805113614 -628055781 -103753225 -570584577
            -240659201 -4724789 -5244757 -16145</internalNodes>
          <leafValues>
            -8.1592154502868652e-01 7.1416741609573364e-01</leafValues></_></weakClassifiers></_>
    <!-- stage 4 -->
    <_>
      <maxWeakCount>4</maxWeakCount>
      <stageThreshold>-5.1047205924987793e-01</stageThreshold>
      <weakClassifiers>
        <_>
          <internalNodes>
            0 -1 24 -613220612 2066956159 -69018406 -1222450262
            -35661569 -14554177 -37265222 -5245973</internalNodes>
          <leafValues>
            -8.3617746829986572e-01 6.7974632978439331e-01</leafValues></_>
        <_>
          <internalNodes>
            0 -1 16 -237513506 -715786764 -724187655 -176869069
            -989861890 -163595276 -202377217 -167774209</internalNodes>
          <leafValues>
            -8.3863323926925659e-01 6.6921347379684448e-01</leafValues></_>
        <_>
          <internalNodes>
            0 -1 12 -642187266 -237373569 -68026369 -2361377 1345359854
            1239128315 -743186437 -67375393</internalNodes>
          <leafValues>
            -8.6750656366348267e-01 5.7227236032485962e-01</leafValues></_>
        <_>
          <internalNodes>
            0 -1 0 -50397490 -554504162 -1365602292 -331427838
            -289679377 -335555361 -809776357 -806389761</internalNodes>
          <leafValues>
            -8.3742576837539673e-01 5.9206622838973999e-01</leafValues></_></weakClassifiers></_>
    <!-- stage 5 -->
    <_>
      <maxWeakCount>3</maxWeakCount>
      <stageThreshold>-7.3682969808578491e-01</stageThreshold>
      <weakClassifiers>
        <_>
          <internalNodes>
            0 -1 27 -496844605 -69472273 -247858401 -82598141 -397967154
            -71631181 -933051702 -79693265</internalNodes>
          <leafValues>
            -7.3357015848159790e-01 7.1145564317703247e-01</leafValues></_>
        <_>
          <internalNodes>
            0 -1 5 -7671046 -138276294 -19457 2142179408 -839978065
            -5409793 1374418943 -536905989</internalNodes>
          <leafValues>
            -8.0661529302597046e-01 6.1812585592269897e-01</leafValues></_>
        <_>
          <internalNodes>
            0 -1 19 -1 -67110913 -1025 -33564417 -513 -1169664555
            -67896326 -68683046</internalNodes>
          <leafValues>
            -6.2138545513153076e-01 8.2756930589675903e-01</leafValues></_></weakClassifiers></_>
    <!-- stage 6 -->
    <_>
      <maxWeakCount>3</maxWeakCount>
      <stageThreshold>-9.2032551765441895e-01</stageThreshold>
      <weakClassifiers>
        <_>
          <internalNodes>
            0 -1 6 -541065761 -65543 -86018 -67588 -33554948 -596312075
            -4108 -33619971</internalNodes>
          <leafValues>
            -7.1673822402954102e-01 7.4420678615570068e-01</leafValues></_>
        <_>
          <internalNodes>
            0 -1 9 -102830474 -202194623 -1354764353 -841979 -68157537
            603127867 -20971525 -134221841</internalNodes>
          <leafValues>
            -7.9576349258422852e-01 6.5996444225311279e-01</leafValues></_>
        <_>
          <internalNodes>
            0 -1 26 -556810036 -16780047 -356951304 -93062409 -926236468
            -92481601 -1966158086 -93860097</internalNodes>
          <leafValues>
            -8.1786203384399414e-01 5.9217619895935059e-01</leafValues></_></weakClassifiers></_>
    <!-- stage 7 -->
    <_>
      <maxWeakCount>3</maxWeakCount>
      <stageThreshold>-9.0138089656829834e-01</stageThreshold>
      <weakClassifiers>
        <_>
          <internalNodes>
            0 -1 4 -1543363057 -1879776461 -939699713 -723975 1493015871
            -17 -69797637 -4522241</internalNodes>
          <leafValues>
            -7.6995307207107544e-01 6.7103111743927002e-01</leafValues></_>
        <_>
          <internalNodes>
            0 -1 22 -4194397 -1349978205 -2228237 -1031 -403704399
            -2018513013 -318790403 -1660158277</internalNodes>
          <leafValues>
            -7.7321189641952515e-01 6.5987193584442139e-01</leafValues></_>
        <_>
          <internalNodes>
            0 -1 25 -553648200 -9217 -301999217 -2228641 -492048209
            867905579 -1427116625 -67109953</internalNodes>
          <leafValues>
            -7.6249033212661743e-01 6.4178407192230225e-01</leafValues></_></weakClassifiers></_>
    <!-- stage 8 -->
    <_>
      <maxWeakCount>3</maxWeakCount>
      <stageThreshold>-6.5411424636840820e-01</stageThreshold>
      <weakClassifiers>
        <_>
          <internalNodes>
            0 -1 14 -51725825 -36463237 -1667811057 -36200477 -122619397
            1027268083 -572958392 -2359982</internalNodes>
          <leafValues>
            -7.1530568599700928e-01 6.8709814548492432e-01</leafValues></_>
        <_>
          <internalNodes>
            0 -1 1 -672146181 -536901406 -268444417 -570488609
            -572525057 -12657 -33567505 -805318961</internalNodes>
          <leafValues>
            -6.6693747043609619e-01 7.1595126390457153e-01</leafValues></_>
        <_>
          <internalNodes>
            0 -1 23 -4200603 1061103367 -1048579 2013265884 -269498396
            -12617930 -137433140 -2</internalNodes>
          <leafValues>
            -6.5145802497863770e-01 7.2812891006469727e-01</leafValues></_></weakClassifiers></_>
    <!-- stage 9 -->
    <_>
      <maxWeakCount>3</maxWeakCount>
      <stageThreshold>-7.9812610149383545e-01</stageThreshold>
      <weakClassifiers>
        <_>
          <internalNodes>
            0 -1 29 -268472507 -1009386533 -245046743 -67109457
            -313024703 -127810673 -505419296 -1049685</internalNodes>
          <leafValues>
            -7.3266875743865967e-01 6.8314319849014282e-01</leafValues></_>
        <_>
          <internalNodes>
            0 -1 15 -137103366 -103164812 -1157394893 -1079308709
            -34120197 -47981509 1058738159 -854865125</internalNodes>
          <leafValues>
            -8.1259787082672119e-01 5.9126269817352295e-01</leafValues></_>
        <_>
          <internalNodes>
            0 -1 3 -285225441 -9474545 -1392513281 -1052945 -268443905
            -143724545 -16908289 -2657028</internalNodes>
          <leafValues>
            -6.3447725772857666e-01 7.4714058637619019e-01</leafValues></_></weakClassifiers></_>
    <!-- stage 10 -->
    <_>
      <maxWeakCount>3</maxWeakCount>
      <stageThreshold>-7.6054722070693970e-01</stageThreshold>
      <weakClassifiers>
        <_>
          <internalNodes>
            0 -1 18 -72366083 -545915019 -608396516 -1249554 -862069777
            -59447019 -268588564 -311035026</internalNodes>
          <leafValues>
            -7.5218659639358521e-01 6.1526232957839966e-01</leafValues></_>
        <_>
          <internalNodes>
            0 -1 2 -1248620079 502373621 -1948042753 -1367171860
            -155731525 1068567731 -67651157 -24119570</internalNodes>
          <leafValues>
            -7.2100287675857544e-01 6.5159803628921509e-01</leafValues></_>
        <_>
          <internalNodes>
            0 -1 8 -18445 2147430259 -19085 2147444531 -1880117325
            -1358973134 -1599699661 -941103309</internalNodes>
          <leafValues>
            -6.5402954816818237e-01 7.1264225244522095e-01</leafValues></_></weakClassifiers></_></stages>
  <features>
    <_>
      <rect>
        0 0 2 8</rect></_>
    <_>
      <rect>
        0 8 5 3</rect></_>
    <_>
      <rect>
        0 14 6 3</rect></_>
    <_>
      <rect>
        0 18 5 1</rect></_>
    <_>
      <rect>
        1 0 7 1</rect></_>
    <_>
      <rect>
        2 3 4 2</rect></_>
    <_>
      <rect>
        2 21 7 1</rect></_>
    <_>
      <rect>
        3 0 4 3</rect></_>
    <_>
      <rect>
        5 6 1 3</rect></_>
    <_>
      <rect>
        5 8 2 3</rect></_>
    <_>
      <rect>
        6 7 3 2</rect></_>
    <_>
      <rect>
        6 10 2 3</rect></_>
    <_>
      <rect>
        6 12 3 3</rect></_>
    <_>
      <rect>
        6 12 4 3</rect></_>
    <_>
      <rect>
        6 14 6 3</rect></_>
    <_>
      <rect>
        8 14 3 3</rect></_>
    <_>
      <rect>
        9 4 3 4</rect></_>
    <_>
      <rect>
        9 7 3 2</rect></_>
    <_>
      <rect>
        9 8 2 2</rect></_>
    <_>
      <rect>
        9 9 2 2</rect></_>
    <_>
      <rect>
        9 10 2 1</rect></_>
    <_>
      <rect>
        9 18 2 2</rect></_>
    <_>
      <rect>
        11 18 3 1</rect></_>
    <_>
      <rect>
        12 7 2 1</rect></_>
    <_>
      <rect>
        12 10 2 3</rect></_>
    <_>
      <rect>
        13 8 2 3</rect></_>
    <_>
      <rect>
        15 4 2 2</rect></_>
    <_>
      <rect>
        16 1 2 5</rect></_>
    <_>
      <rect>
        18 7 2 3</rect></_>
    <_>
      <rect>
        21 1 1 7</rect></_></features></cascade>
</opencv_storage>
